%YAML:1.0
---
hog_detector: !!opencv-object-detector-hog
   winSize: [ 64, 128 ]
   blockSize: [ 16, 16 ]
   blockStride: [ 8, 8 ]
   cellSize: [ 8, 8 ]
   nbins: 9
   derivAperture: 1
   winSigma: 4.
   histogramNormType: 0
   L2HysThreshold: 2.0000000000000001e-01
   gammaCorrection: 1
   nlevels: 64
   signedGradient: 0
   SVMDetector: [ 1.54081907e-03, -1.51336147e-03, -1.13599896e-02,
       2.56471871e-03, -3.81168649e-02, 9.12644807e-03, -2.94035487e-02,
       -2.79661603e-02, -2.12176442e-02, -2.37348629e-03, 8.16563983e-03,
       2.26026308e-02, 1.64330266e-02, -1.92147307e-02, -1.25885522e-02,
       -5.28224744e-02, -4.25481796e-02, -1.90693568e-02,
       -1.53377419e-02, 1.63972788e-02, 1.53130824e-02, 3.40874642e-02,
       -2.57121921e-02, 5.39796939e-03, -3.19910981e-02, -1.60550363e-02,
       -2.13746428e-02, -5.91768278e-03, 2.87841950e-02, 2.03791931e-02,
       2.89992746e-02, -7.02543370e-03, 1.29939513e-02, -5.10761961e-02,
       -4.68923002e-02, -1.55402534e-02, -1.23825585e-02, 2.14799307e-02,
       1.61234029e-02, 1.30074853e-02, 1.42889442e-02, -8.97089485e-03,
       -5.31438105e-02, -4.75693271e-02, -2.73296013e-02,
       -2.98803691e-02, 2.38262434e-02, -8.67280003e-04, 8.91907606e-03,
       4.79873968e-03, -4.29082487e-04, -2.89451350e-02, -4.89894599e-02,
       -4.43288274e-02, -2.18346552e-03, 1.03561170e-02, 4.43773111e-03,
       1.78005863e-02, 8.52093846e-03, 1.40995309e-02, -5.37153929e-02,
       -4.59188372e-02, -2.27680989e-02, -3.08546834e-02,
       -1.30807597e-03, -1.80918835e-02, 1.00007504e-02, 1.08299628e-02,
       1.54881869e-02, -3.29901353e-02, -3.99414822e-02, -4.41315323e-02,
       -1.52211199e-02, 3.12207453e-02, 1.42645622e-02, 2.26423051e-02,
       -9.13666375e-03, 1.27474740e-02, -1.46246236e-02, -2.90984139e-02,
       -2.89166756e-02, -1.54166874e-02, 3.53421271e-02, 1.73219070e-02,
       3.88125591e-02, -2.20992528e-02, -5.90362074e-03, -4.46145125e-02,
       -2.79611964e-02, -2.66683288e-02, -1.42744975e-02, 2.20682919e-02,
       1.67458374e-02, 1.92057490e-02, -1.84750371e-03, 1.30895367e-02,
       -1.01397168e-02, -2.53295880e-02, -4.10088450e-02,
       -1.12555008e-02, 1.78569742e-02, -3.72291380e-03, 1.30678564e-02,
       -2.04074290e-02, -4.27884143e-03, -3.68332490e-02,
       -1.75632071e-02, -2.89889593e-02, 4.90672304e-04, 4.35887910e-02,
       2.31987499e-02, 3.07618920e-02, -1.06739337e-02, -1.12565150e-02,
       -4.69355658e-02, -2.13224087e-02, -2.25903634e-02, 1.30962096e-02,
       5.63525371e-02, 1.69407111e-02, 2.32894160e-02, -8.45908560e-03,
       1.14803168e-03, -3.22574452e-02, -3.07498667e-02, -2.17623971e-02,
       4.42712614e-03, 3.14482041e-02, 1.07187647e-02, 1.29686026e-02,
       -5.91328787e-03, 1.68209348e-03, -3.38266194e-02, -1.33186579e-02,
       -1.41265858e-02, 1.84529498e-02, 6.34780228e-02, 8.52813199e-03,
       -1.40127051e-03, -6.65918645e-03, 1.05508028e-04, -4.64424156e-02,
       -2.73020454e-02, -9.45213530e-03, 2.72903424e-02, 5.40924110e-02,
       2.23745629e-02, 1.05986223e-02, -2.21515577e-02, -2.42909254e-03,
       -1.78781934e-02, -2.01641973e-02, -7.08510447e-03, 1.63344257e-02,
       5.60290441e-02, 1.18673434e-02, 9.36810160e-04, -1.64725333e-02,
       -1.35422088e-02, -4.00537252e-02, -2.97723021e-02,
       -1.82904992e-02, 2.36743838e-02, 5.04045933e-02, 3.79042095e-03,
       -4.12885891e-03, -1.44397281e-02, -7.33635435e-03,
       -2.59352606e-02, -2.49901395e-02, -5.39796706e-03, 1.35959499e-02,
       3.07872798e-02, -4.17218311e-03, -3.55396862e-03, -1.54099949e-02,
       -9.52911098e-03, -2.68756878e-02, -2.53907219e-02,
       -1.83389299e-02, 1.18249599e-02, 6.99116290e-02, 4.05582637e-02,
       1.87255852e-02, -2.45182612e-03, -5.36209485e-03, -3.69207971e-02,
       -2.82402523e-02, -2.96676029e-02, 2.33460702e-02, 8.49356800e-02,
       2.56328844e-02, -1.67227618e-03, -5.78529574e-03, 7.54375383e-03,
       -3.85074392e-02, -2.07010675e-02, -2.34169830e-02, 2.19838563e-02,
       4.83572036e-02, 1.97167359e-02, -7.05342786e-03, -1.09081008e-02,
       3.75475432e-03, -1.42354667e-02, -1.94918942e-02, -2.03538574e-02,
       2.24676710e-02, 4.40383479e-02, -7.49036158e-03, -1.06464298e-02,
       -3.80783752e-02, 4.48420469e-04, -4.19386551e-02, -2.16807723e-02,
       -1.12817716e-02, 1.30654182e-02, 5.26700728e-02, 1.56602934e-02,
       3.69173754e-03, 1.60408709e-02, 1.64073780e-02, -2.75724046e-02,
       -9.23192874e-03, -2.58724559e-02, 1.07381484e-02, 5.26898466e-02,
       9.61791631e-03, 6.54535089e-03, -1.75000355e-02, 1.23659300e-03,
       -3.14052515e-02, -1.50275081e-02, -2.72649564e-02, 7.18869688e-03,
       3.35099325e-02, -1.15035195e-02, -9.26269032e-03, -1.07599981e-02,
       2.88063474e-03, -5.11774905e-02, -2.66312975e-02, -2.45897807e-02,
       2.47816235e-04, 3.44190113e-02, -7.49541633e-03, 2.04127585e-03,
       -4.90439124e-03, -7.83302169e-03, -5.15181571e-02,
       -1.44739328e-02, -2.94464864e-02, 1.43325301e-02, 5.34720421e-02,
       2.10788418e-02, 1.22695239e-02, 4.87789366e-04, 3.33462702e-03,
       -2.92406995e-02, -1.90694239e-02, -3.08509320e-02, 2.31226441e-02,
       6.13240190e-02, 1.01709170e-02, -4.03443957e-03, -3.87625992e-02,
       -2.42085736e-02, -4.51896004e-02, -1.53996563e-02,
       -2.65128948e-02, 1.65691576e-03, 4.25004289e-02, 1.16286464e-02,
       1.95576902e-02, 1.19514875e-02, -6.56438572e-03, -4.44941670e-02,
       -1.94157716e-02, -3.26411761e-02, 1.41385570e-02, 5.35803139e-02,
       1.48903755e-02, 1.45647931e-03, -3.16527002e-02, -1.13545358e-03,
       -4.65345159e-02, -2.19662841e-02, -3.58590484e-02, 1.68523025e-02,
       7.02074766e-02, 2.65929140e-02, 7.91847892e-03, -1.35805756e-02,
       -1.41224302e-02, -2.75494196e-02, -4.61098971e-03,
       -1.82838067e-02, -2.61189952e-03, 5.77892214e-02, 1.51355304e-02,
       4.45529865e-03, -6.61993353e-03, -1.19983836e-03, -2.17283331e-02,
       -4.78366530e-03, -1.64832473e-02, 9.73810628e-03, 6.03059605e-02,
       2.17898972e-02, 9.25424509e-03, -9.88928694e-03, -8.83203465e-03,
       -3.06393001e-02, -6.36007776e-03, -1.91746410e-02,
       -9.30782687e-03, 4.54944260e-02, 2.26731170e-02, 1.28056165e-02,
       -1.94069911e-02, 1.35522708e-02, -1.35533260e-02, -5.24423458e-03,
       -2.68567242e-02, -4.95423516e-03, 4.91658077e-02, 2.82700714e-02,
       2.45174896e-02, 1.40497303e-02, 9.38033778e-03, -3.32623720e-03,
       1.00021334e-02, -1.12383189e-02, 8.25327076e-03, 5.27732447e-02,
       2.62698978e-02, 4.74407384e-03, -2.36653523e-05, 7.00936513e-03,
       -8.09475873e-03, 1.46597186e-02, 2.14750879e-03, 6.35174615e-03,
       5.48088700e-02, 3.51086482e-02, 1.01083629e-02, -1.16089107e-02,
       1.29645756e-02, -8.29241611e-03, 1.94048719e-03, -2.15212945e-02,
       1.11481715e-02, 5.45894802e-02, 6.48476137e-03, -6.10619923e-03,
       -1.71309412e-02, -2.30798218e-03, -1.22670028e-02,
       -1.80887873e-04, -1.07467594e-02, 1.07683754e-02, 5.64311743e-02,
       3.63600366e-02, 8.32697283e-03, 1.16482638e-02, 2.11763270e-02,
       -9.65023786e-03, 6.36567501e-03, 4.03073244e-03, 1.68568231e-02,
       5.24728745e-02, 4.25422639e-02, 2.69396622e-02, -5.94411045e-04,
       1.01464875e-02, -2.48544235e-02, -1.24950660e-02, -1.66797056e-03,
       1.05817569e-03, 4.15102318e-02, 1.38920974e-02, -1.15196081e-02,
       -8.47043283e-03, 2.65900907e-03, -1.61722936e-02, -5.35169616e-04,
       -9.51878540e-03, 1.09599286e-03, 2.12805662e-02, 1.59287080e-03,
       -5.38630411e-03, -1.79658830e-02, -1.34879686e-02,
       -4.06090505e-02, -2.20243577e-02, -1.07594384e-02, 1.20180286e-02,
       5.67839891e-02, 3.36834751e-02, 2.30873544e-02, 1.52112218e-02,
       9.86965746e-03, -2.47217696e-02, -1.72440223e-02, -1.05679473e-02,
       9.16625746e-03, 5.80359101e-02, 1.81471966e-02, 2.72237044e-03,
       -2.74781790e-03, 1.70470960e-02, -2.19475534e-02, -4.94820531e-03,
       -1.40635076e-03, 1.34284925e-02, 2.24690959e-02, 3.18813534e-03,
       -8.11531115e-03, -5.19794365e-03, -3.98030301e-04,
       -3.66475098e-02, -2.67118216e-02, -9.28536057e-03, 2.13179123e-02,
       2.72915196e-02, 7.56532140e-03, -2.80132927e-02, -3.24910618e-02,
       -1.09132044e-02, -4.23905961e-02, -2.89234854e-02, 5.52021200e-03,
       1.58346724e-02, 3.86030935e-02, 1.34138055e-02, -3.78536782e-03,
       -5.87030267e-03, -2.37292006e-05, -2.15583220e-02,
       -4.06637555e-03, 7.96704367e-03, 2.63381097e-02, 5.67289889e-02,
       4.54903916e-02, 1.63815282e-02, -4.85396292e-03, -2.09395494e-02,
       -4.63505536e-02, -1.25616062e-02, 9.80311632e-03, 2.28375010e-02,
       2.69401763e-02, 8.22486449e-03, -2.49693561e-02, -1.18667074e-02,
       -2.47501326e-03, -2.51595415e-02, -8.66914447e-03, 1.38684725e-02,
       3.49879055e-03, 2.96606645e-02, 1.25586847e-02, -3.27837421e-03,
       -1.52805503e-02, -2.09904220e-02, -4.24003452e-02,
       -5.76375751e-03, -5.76977152e-03, 2.17419360e-02, 5.61534278e-02,
       4.51334082e-02, 1.95511095e-02, -5.96929854e-03, -4.83045802e-02,
       -3.84622999e-02, -9.75769665e-03, -1.55430345e-03, 1.73001289e-02,
       6.20789491e-02, 4.04957086e-02, 1.73602346e-02, 1.29329460e-02,
       -1.28646381e-02, -1.54151209e-02, -7.55326729e-03,
       -3.41450097e-03, 5.82702970e-03, 2.99800783e-02, 1.06571391e-02,
       -1.95659837e-03, -4.95235715e-03, -4.01293747e-02,
       -4.73805219e-02, -2.04714015e-02, -1.25719355e-02, 2.49051731e-02,
       3.63877937e-02, 1.84350405e-02, 2.57309293e-03, 1.14999637e-02,
       3.38503346e-03, -1.06494501e-02, -1.78874377e-02, -1.13555435e-02,
       6.56672521e-03, 4.47666086e-02, 3.38987485e-02, 1.32974600e-02,
       3.84753308e-04, -1.85234752e-02, -1.72969904e-02, -4.45758598e-03,
       1.60520396e-03, 1.21722631e-02, 4.43882830e-02, 4.32364270e-02,
       3.23867388e-02, 4.10520844e-03, -2.41282359e-02, -2.00188458e-02,
       -5.85774984e-03, -1.01712439e-02, 8.62938166e-03, 2.79171206e-02,
       3.06245293e-02, 7.81794917e-03, 6.50748564e-03, -1.61089115e-02,
       -2.66846884e-02, -1.57991480e-02, -1.22755719e-02,
       -3.85646359e-04, 4.11707796e-02, 4.74418141e-02, 1.68469232e-02,
       7.25119421e-03, -2.86752284e-02, -2.84350365e-02, -9.40111186e-03,
       -1.44595774e-02, -2.47600898e-02, 3.39847710e-03, 1.32371783e-02,
       2.64594015e-02, 7.64151616e-03, 1.70853846e-02, -3.99118960e-02,
       -2.85103247e-02, -3.44995111e-02, -1.68318041e-02, 1.58237275e-02,
       9.55786742e-03, 1.20232049e-02, -2.45381030e-03, 2.66689137e-02,
       -3.87771353e-02, -3.95325981e-02, -2.93574240e-02,
       -4.02282644e-03, 2.62732264e-02, 1.67237632e-02, 3.74743007e-02,
       8.49994482e-04, 5.25921443e-03, -3.12308669e-02, -1.21342298e-02,
       -1.22536262e-02, -1.81482062e-02, 2.17373930e-02, -5.55445673e-03,
       1.73689332e-02, -1.04119666e-02, 1.22501943e-02, -3.37947905e-02,
       -1.54434890e-02, -2.99262237e-02, -1.02959806e-02, 1.63579229e-02,
       9.38860886e-03, 1.61664058e-02, 2.67453608e-03, 2.48252824e-02,
       -3.61024700e-02, -2.53053047e-02, -3.32426466e-02,
       -1.69633534e-02, 9.66994930e-03, -2.24887449e-02, 1.27917062e-02,
       5.53453574e-03, 1.97539739e-02, -3.47078815e-02, -2.88756080e-02,
       -3.88379842e-02, -6.99796528e-03, 2.19588876e-02, -5.63352485e-04,
       1.99242048e-02, -6.16096484e-04, 1.31744156e-02, -2.90445071e-02,
       -1.17634572e-02, -2.27170046e-02, -7.86897261e-03, 4.38561477e-03,
       -2.66753305e-02, 5.08772815e-03, -2.25862879e-02, 8.85792263e-03,
       -3.36371176e-02, -1.47545617e-02, -3.00832838e-02,
       -6.21233974e-03, 2.01714206e-02, 7.33648776e-04, 1.86833683e-02,
       1.49674146e-02, 8.11113138e-03, -1.83859896e-02, -1.39177060e-02,
       -2.65207160e-02, 7.08167348e-03, 2.22618934e-02, -2.11803708e-02,
       -3.93699436e-03, -1.76753278e-03, -1.83633007e-02,
       -2.55371369e-02, -8.41019582e-03, -1.99939273e-02, 5.29345451e-03,
       1.47726685e-02, -1.42891938e-02, 1.44289909e-02, 3.91602004e-03,
       -1.32162322e-03, -2.12584157e-02, 3.33429896e-03, -3.12162610e-03,
       -6.36720331e-04, 2.96194404e-02, -1.62717309e-02, -1.51212290e-02,
       -2.01911610e-02, -1.47718303e-02, -2.21611969e-02,
       -5.23772649e-03, -1.34543385e-02, 4.31286078e-03, 2.10605115e-02,
       1.12555902e-02, 1.10464050e-02, 1.48174083e-02, 3.08160810e-03,
       -1.98504906e-02, -4.86615952e-03, -4.30287560e-03, 1.42402416e-02,
       4.91993278e-02, 1.00584542e-02, 1.34482002e-02, 1.83884129e-02,
       9.54707060e-03, -4.11860868e-02, -2.51171477e-02, -3.57979676e-03,
       -4.70760185e-03, 1.56939887e-02, -8.28617252e-03, 2.18268833e-03,
       8.20210483e-03, 1.94418244e-04, -2.81443130e-02, -2.16693874e-03,
       -1.42256608e-02, 5.38311480e-03, 1.66643430e-02, -2.62669772e-02,
       9.86555032e-03, 7.83555023e-03, 1.01961400e-02, -4.52880785e-02,
       -1.78778227e-02, -1.83513388e-02, 1.38889933e-02, 4.81824726e-02,
       1.33353714e-02, 1.77294388e-02, 1.49155147e-02, 1.31170219e-02,
       -2.59104855e-02, -2.01438703e-02, -1.04083624e-02, 1.44810518e-02,
       4.13870476e-02, 7.09194457e-03, 3.91835347e-03, 1.04976809e-02,
       1.08948341e-02, -1.61080658e-02, -2.87074968e-02, -1.75262224e-02,
       -6.65263878e-03, 1.97084565e-02, -2.20031161e-02, 1.31651899e-02,
       8.62997770e-03, 1.72904599e-02, -3.54393013e-02, -2.10596025e-02,
       -2.43674032e-02, -1.23794274e-02, 1.78478137e-02, -1.87365767e-02,
       1.10725174e-02, -1.25773940e-02, 2.35609477e-03, -2.68006567e-02,
       -1.79737546e-02, -3.30402143e-02, 1.90447681e-02, 3.73202600e-02,
       6.41655177e-03, -4.17338964e-03, 2.86267907e-03, 1.76239405e-02,
       -9.31183808e-03, -1.67201813e-02, -8.63891933e-03, 1.59439202e-02,
       3.62447985e-02, -1.22683216e-02, -7.02866400e-03, -3.23683992e-02,
       -1.08286191e-03, -3.66909988e-02, -1.47309350e-02, 2.17541796e-03,
       -3.41720833e-03, 1.06198415e-02, -3.15082148e-02, -8.56300257e-03,
       -1.02192666e-02, 1.40522048e-02, -1.58450305e-02, -8.43435805e-03,
       -3.20732929e-02, -1.44296372e-02, 6.97983848e-03, -4.15471122e-02,
       -5.22146886e-03, -3.37515362e-02, 1.01999491e-02, -8.28549266e-03,
       1.07330615e-02, -1.20840147e-02, 4.98702610e-03, 3.81123535e-02,
       6.38827775e-03, 5.73667185e-03, 1.28509458e-02, 1.72433518e-02,
       -4.64909934e-02, -2.03224476e-02, -2.02793907e-03, 1.42204901e-02,
       4.70106564e-02, 1.59061793e-02, 6.13180164e-04, 1.48851080e-02,
       2.55908091e-02, -3.84910069e-02, -2.19841916e-02, -8.34668614e-03,
       -2.33742800e-02, 2.53484156e-02, -1.42797986e-02, -2.04197294e-03,
       -2.45591253e-03, 1.88515019e-02, -1.61119793e-02, -5.03809610e-03,
       -1.33938966e-02, -5.04439278e-03, 1.25000076e-02, -1.41764330e-02,
       -1.28449835e-02, -2.44632177e-02, 3.19358297e-02, -2.49077342e-02,
       -2.54803952e-02, -1.62416715e-02, 1.07718911e-02, 5.01098000e-02,
       2.32384242e-02, 2.79288851e-02, 3.62290852e-02, 2.36426983e-02,
       -1.89999398e-02, -7.27900863e-03, -7.68649066e-03, 2.41291970e-02,
       7.39543065e-02, 3.05223335e-02, 1.45632057e-02, 1.65134389e-02,
       1.97551828e-02, -2.09435355e-02, -8.57348181e-03, -1.88000463e-02,
       -8.42115551e-04, 3.06609049e-02, -3.27230222e-03, 1.38379692e-03,
       -6.46125898e-03, 1.86847653e-02, -3.16681862e-02, -2.21826378e-02,
       -2.98526883e-02, 3.64545686e-03, 4.47050482e-02, -5.64496219e-03,
       -7.70367216e-03, -2.11528055e-02, -7.96134025e-03,
       -3.21684144e-02, -2.07769983e-02, -2.88835820e-02, 1.38586368e-02,
       5.58539554e-02, 2.48861592e-02, 2.16142796e-02, 9.34879016e-03,
       2.65407395e-02, -1.03780208e-02, -1.11317192e-03, -7.13446550e-03,
       1.72315016e-02, 5.45103587e-02, 2.33912487e-02, 1.45165892e-02,
       -2.26177461e-02, 3.63510847e-02, -3.82010476e-03, 4.67055431e-03,
       -1.52007360e-02, 1.00863092e-02, 3.81017141e-02, -1.85547373e-03,
       -1.67418029e-02, -2.83722486e-02, 2.05296073e-02, -1.22883376e-02,
       -1.59455966e-02, -1.52284373e-02, 1.30152041e-02, 3.46626155e-02,
       -1.33841985e-03, -1.95498671e-02, -5.04998378e-02, 2.51759831e-02,
       -2.80325916e-02, -3.20076831e-02, -2.09092014e-02, 2.67426148e-02,
       7.02365562e-02, 4.48982753e-02, 1.75658092e-02, 1.12695084e-03,
       1.75657049e-02, -1.54797896e-03, -4.54862748e-04, -1.24021275e-02,
       1.97237413e-02, 5.59889600e-02, 1.38158221e-02, -7.11802859e-03,
       4.40137368e-03, -2.04162207e-03, -1.00447275e-02, -5.64492913e-03,
       -1.57318506e-02, 5.04945754e-04, 2.91984882e-02, 7.00632902e-03,
       -1.02635426e-02, -2.01954562e-02, 1.50803691e-02, -1.87093988e-02,
       -2.11081710e-02, -1.96580254e-02, -1.00476146e-02, 4.82332055e-03,
       -2.71428935e-02, -4.44839001e-02, -2.05997061e-02,
       -1.95949692e-02, -1.79246552e-02, -1.28287142e-02,
       -1.30442800e-02, 5.64176007e-05, 3.72998416e-02, 1.46435034e-02,
       -9.26886033e-03, 2.56532850e-03, -3.18624359e-03, -1.43957911e-02,
       -2.21333769e-03, -1.01914331e-02, 6.31422852e-04, 2.62937378e-02,
       6.60918653e-03, -7.88738951e-03, -8.99197592e-04, 2.93418136e-03,
       -3.27679180e-02, -1.10009294e-02, -4.48081363e-03,
       -3.03402281e-04, 2.07480751e-02, -2.54541505e-02, -3.84202451e-02,
       -1.52263306e-02, -1.13500450e-02, -2.03702282e-02,
       -5.19114826e-03, -3.47681018e-03, 1.81122459e-02, 3.99152935e-02,
       -8.48694611e-03, -2.02193391e-02, -1.90508496e-02, 7.21096480e-03,
       -3.18973996e-02, 6.16666675e-03, 1.51176676e-02, 8.50667898e-03,
       2.97393538e-02, 1.75504610e-02, -6.82599097e-03, -3.63667402e-03,
       1.46350963e-02, -2.37645525e-02, -1.68725885e-02, 7.00970995e-04,
       1.08024972e-02, 4.39749435e-02, 1.84262581e-02, -1.34351477e-02,
       -1.59072056e-02, -5.07959048e-04, -2.81601734e-02,
       -2.58612800e-02, 1.62259024e-03, 1.52534526e-02, 3.29976566e-02,
       2.35604239e-03, -2.27084383e-02, -1.48975728e-02, 1.67761706e-02,
       -2.10828409e-02, -1.89943484e-03, 2.66523799e-03, 1.60674099e-02,
       4.02374268e-02, 1.14926789e-02, -1.17649166e-02, -1.39155062e-02,
       4.08626674e-03, -3.41280475e-02, -2.73001939e-02, -6.56086300e-03,
       3.49617936e-03, 3.26789357e-02, 2.39637643e-02, -1.86226442e-02,
       5.58607606e-03, 5.12903137e-03, -5.62299043e-03, -1.03549496e-03,
       -6.59332378e-03, 1.03526255e-02, 2.49726493e-02, 7.89318047e-03,
       -8.12122226e-03, -4.89877304e-03, -1.67771510e-03,
       -4.32583224e-03, 1.54479882e-02, -1.81458779e-02, 5.45208575e-03,
       3.81467938e-02, -1.62866345e-04, -1.18110701e-02, 1.95336640e-02,
       8.57434608e-03, -1.57267991e-02, -1.92161556e-02, -1.64583195e-02,
       -7.44398311e-03, 2.59586666e-02, -6.25689840e-03, -1.52440649e-02,
       -2.28429539e-03, -1.96475093e-03, -1.32624349e-02,
       -4.63754078e-03, -1.38704376e-02, 5.39828977e-03, 2.35406645e-02,
       1.12296222e-02, -4.47237259e-03, 2.12529511e-03, -1.56901758e-02,
       -3.89773748e-03, -1.17252627e-03, -3.10190837e-03, 2.36505307e-02,
       4.39979322e-02, 2.29826029e-02, 6.06917776e-03, 6.78666122e-03,
       8.52443278e-03, 5.39482571e-03, -7.80600170e-03, 8.52708146e-03,
       -1.56765990e-03, 1.75210312e-02, 5.86325768e-03, -1.39408873e-03,
       -6.28117099e-03, -2.65897214e-02, -1.06763942e-02,
       -1.90830242e-03, -1.00578731e-02, 6.44396245e-03, 1.96258742e-02,
       1.20077794e-02, 5.36375539e-03, -6.05000835e-03, 3.44240619e-03,
       1.09829837e-02, 1.14904707e-02, 2.20533879e-03, 1.60198088e-03,
       4.30111922e-02, 3.71303335e-02, 1.23397950e-02, 4.50038351e-03,
       -1.61636360e-02, -2.00406592e-02, -2.16693860e-02,
       -2.19258498e-02, -2.85905018e-03, 5.53197674e-02, 4.88776602e-02,
       2.19798908e-02, 2.09416375e-02, -1.75791401e-02, -1.73844099e-02,
       -8.80359393e-03, -2.54478194e-02, -5.57073997e-03, 2.56736726e-02,
       1.34739811e-02, 5.78858482e-04, -1.39011480e-02, -1.88256782e-02,
       -9.40410793e-03, -8.14239867e-03, -1.84832998e-02, 2.12199539e-02,
       4.54394408e-02, 2.84875482e-02, 3.17297503e-03, 4.49025910e-03,
       -4.96632839e-03, 4.86695208e-03, -4.87578014e-04, -3.36723722e-04,
       8.10160954e-03, 3.29181217e-02, 1.89981144e-02, 3.34866568e-02,
       -1.55289238e-02, 5.65408263e-03, -1.73111483e-02, -4.25444625e-04,
       5.46438014e-03, -1.63593758e-02, 1.16565190e-02, -1.06318593e-02,
       -2.51312461e-03, -2.10764501e-02, 4.90948372e-03, -2.71761678e-02,
       -2.77806562e-03, -1.52914338e-02, 2.72172429e-02, 3.74389812e-02,
       1.14604412e-02, 2.57436875e-02, 1.10729027e-03, 1.00457883e-02,
       -1.73282120e-02, -4.24228143e-03, 2.43116524e-02, -1.05983783e-02,
       1.03464369e-02, -2.01752316e-02, -2.34678984e-02, -3.51660736e-02,
       6.68289978e-03, -2.83996798e-02, -1.03347190e-02, -1.03424797e-02,
       -1.86292001e-03, 2.64329128e-02, 4.54009604e-03, 1.37485871e-02,
       3.50200431e-03, 1.50937699e-02, -2.63772625e-02, -5.15123876e-03,
       -1.06834378e-02, 8.57627578e-03, 2.81678755e-02, 2.22439924e-03,
       4.83303098e-03, -1.62962433e-02, 1.83806609e-04, -2.99061686e-02,
       -1.86209269e-02, 1.79260457e-03, -1.52910389e-02, 2.72051413e-02,
       3.35193356e-03, 2.90429743e-04, -1.18854307e-02, 1.94497202e-02,
       4.26016329e-03, 1.32643543e-02, -4.68823360e-03, -4.13124263e-03,
       2.77316589e-02, -1.57153903e-04, 8.20352510e-03, -1.89501848e-02,
       1.91077553e-02, -1.44012261e-03, -9.21819918e-03, -5.83040668e-03,
       6.86689233e-03, 2.09990181e-02, 7.51715433e-03, 1.12292357e-02,
       1.25723623e-03, -1.66276842e-03, -2.54964456e-02, -6.25461387e-03,
       7.48521974e-03, 7.81633798e-03, 2.76775025e-02, -4.89230175e-03,
       -2.38455390e-03, -2.82643754e-02, -1.02336137e-02,
       -1.64203495e-02, 4.96006431e-03, 6.37761783e-04, 3.62239662e-03,
       2.76097078e-02, -4.64515155e-03, 1.80692319e-02, 4.79651056e-03,
       1.13034220e-02, -1.01176715e-02, -1.22699002e-02, -3.21481819e-03,
       1.78966159e-03, 2.08868198e-02, -2.98435725e-02, -8.85401666e-03,
       -2.93147750e-02, -5.71197318e-03, -1.90304443e-02,
       -2.89604347e-03, -7.43534695e-03, 1.06086601e-02, 2.30277907e-02,
       -1.96320168e-03, -1.78297365e-03, -1.02498401e-02, 4.36627679e-03,
       -2.89258827e-02, 1.15668578e-02, 2.69713486e-03, 1.34707661e-02,
       1.76568814e-02, -3.31744477e-02, 2.36610789e-03, -4.38835938e-03,
       6.23332663e-03, -5.60234301e-02, -7.61403423e-03, 3.76671972e-03,
       8.24194029e-03, 1.86319333e-02, -2.93756761e-02, -4.89077438e-03,
       -1.70068983e-02, 6.37454772e-03, -1.58476010e-02, 8.15003179e-03,
       1.00520672e-02, 1.57687012e-02, 2.18790509e-02, -4.66348603e-02,
       1.92778389e-04, -1.81801841e-02, -2.02392647e-03, -2.69999709e-02,
       8.78192112e-03, 1.98326185e-02, 3.23861698e-03, 2.14317944e-02,
       -1.89111680e-02, 1.92034524e-02, 1.96302980e-02, 2.12229881e-02,
       -3.24486494e-02, -4.06087283e-03, -2.66187964e-03, 1.40528043e-03,
       2.20655296e-02, -2.05999147e-02, 1.76263985e-03, -5.82400290e-03,
       -3.33890115e-04, -3.13225277e-02, 5.19832713e-04, -6.66911388e-03,
       6.89980667e-03, 2.56729256e-02, -1.92381963e-02, 5.95290633e-03,
       -2.47524265e-04, 1.79581507e-03, -2.02331133e-02, 4.74428432e-03,
       1.17393825e-02, 6.21427177e-03, 2.47298218e-02, -2.66876947e-02,
       -1.08782863e-02, -1.66358706e-02, 7.59007549e-03, -2.89008040e-02,
       -6.21185731e-03, -2.24705200e-05, -2.38447962e-03, 7.47841643e-03,
       -2.77106669e-02, -1.02605782e-02, 7.23784603e-03, 1.88953467e-02,
       -1.45027358e-02, 6.09885529e-03, -6.90758554e-03, -1.12661766e-02,
       1.39779309e-02, -2.01625135e-02, -1.14591587e-02, -2.10927930e-02,
       2.19332315e-02, 9.59527388e-04, 1.53078102e-02, -2.96543213e-03,
       -6.71014609e-03, 2.81662773e-03, -3.02552879e-02, -1.36658791e-02,
       7.38457404e-03, 1.36211421e-02, -2.08592806e-02, 6.99726539e-03,
       -3.63110541e-03, -1.28692333e-02, -1.85693672e-03,
       -4.04871814e-02, -1.94735117e-02, -3.01366299e-02, 2.25194674e-02,
       2.72799371e-04, 7.72626046e-03, -8.52737390e-03, -5.92370192e-03,
       4.24494594e-02, 1.72966765e-03, -5.92827564e-03, -6.48944697e-04,
       3.42753269e-02, 1.47622665e-02, 6.63502282e-03, -4.99923248e-03,
       1.00177703e-02, 3.01370975e-02, 2.08951929e-03, -9.59961955e-03,
       -2.68463865e-02, 2.32516807e-02, -9.31602204e-04, -9.39456001e-03,
       -3.12974863e-03, -1.32200615e-02, 8.71811807e-03, -1.38960229e-02,
       -5.78149222e-03, -7.06757512e-03, 3.97376306e-02, 1.96383055e-03,
       -1.14620784e-02, -1.69108752e-02, -1.89337581e-02, 2.57262471e-03,
       -3.15745287e-02, -2.11951360e-02, -3.17271836e-02, 2.91389748e-02,
       -8.19562338e-05, -9.75847803e-03, -1.05602089e-02, 2.42281724e-02,
       4.30974402e-02, 8.23789649e-03, 7.70607777e-03, 3.17584141e-03,
       2.24205740e-02, -1.23418067e-02, -1.24280127e-02, -5.90966549e-04,
       2.46121641e-02, 4.98580895e-02, -4.16296069e-03, -1.79621037e-02,
       -1.21000865e-02, 1.80915985e-02, -7.83243217e-03, -1.13589093e-02,
       -1.37528253e-03, 2.80853664e-03, 2.52910126e-02, -6.52560359e-03,
       -1.46139441e-02, 4.45077848e-03, 1.82593800e-02, -5.62422862e-03,
       -3.14861094e-03, 2.25663045e-03, 2.33537350e-02, 3.49904634e-02,
       -9.12768207e-03, -2.17652395e-02, -2.85386965e-02, 8.52323417e-03,
       -1.53763983e-02, -1.96350105e-02, -1.37567031e-03, 1.40757030e-02,
       4.40201983e-02, 7.94623606e-03, -1.54212499e-02, -6.63033174e-03,
       3.10310852e-02, 2.95688421e-03, -8.53771903e-03, -4.45762696e-03,
       6.87227817e-03, 3.91196422e-02, 7.78157683e-03, -1.33482609e-02,
       -7.44317379e-03, 3.74406688e-02, 2.17489200e-04, -2.10637506e-02,
       -1.36358440e-02, 4.38694283e-03, 2.50782482e-02, -1.82335656e-02,
       -2.96946224e-02, -1.41648212e-02, 2.31992900e-02, -2.89972010e-03,
       -1.37182921e-02, -1.89087968e-02, -1.62182339e-02, 2.86917575e-02,
       -2.39660367e-02, -3.62828709e-02, -1.68927312e-02, 2.47215610e-02,
       2.34533660e-02, -1.24615086e-02, -2.65327878e-02, 8.42429232e-03,
       4.01043855e-02, 1.83071531e-02, -5.99001488e-03, -4.63742734e-04,
       4.06071320e-02, 2.84584938e-03, -1.06351599e-02, -4.53248806e-03,
       2.11431272e-02, 3.96730937e-02, 1.04788039e-03, -3.08798850e-02,
       -1.58430710e-02, 1.07390573e-02, -1.24242287e-02, 1.80855079e-03,
       1.10662524e-02, -1.06286583e-02, 4.50983122e-02, 6.00848207e-03,
       -4.10561450e-02, -6.38951221e-03, 3.48924994e-02, 1.05186710e-02,
       -1.31112700e-02, -2.33148541e-02, -2.09320639e-03, 2.60389689e-02,
       -6.68627303e-03, -6.05611391e-02, -4.32786867e-02, 6.21147454e-03,
       -2.32683830e-02, -1.63542014e-02, -2.56040208e-02, 1.86487325e-02,
       3.64734717e-02, -1.79120079e-02, -3.04086059e-02, -1.31612848e-02,
       -7.42448959e-03, -1.41734509e-02, 4.49172501e-03, 1.37858586e-02,
       3.54212485e-02, 4.25088964e-02, -1.50945056e-02, -2.43954491e-02,
       -2.28806138e-02, 6.69886265e-03, -9.89825651e-03, 1.44923963e-02,
       2.40572691e-02, -4.16526524e-03, 1.53888585e-02, -2.96159051e-02,
       -4.36958522e-02, -2.00313125e-02, 6.47844980e-03, -2.23004073e-03,
       -1.26522919e-02, -2.90119182e-02, 3.25969630e-03, 2.68064607e-02,
       -2.01278906e-02, -3.13123018e-02, -2.17669290e-02, 1.92067809e-02,
       5.13406843e-03, 8.98438040e-03, -5.20296674e-03, 4.45052050e-03,
       2.44567282e-02, 3.27281724e-03, -1.59690324e-02, 4.87965858e-03,
       1.18843233e-02, -2.11417899e-02, -1.27116882e-03, 9.45343272e-05,
       2.64104828e-03, 4.06337939e-02, 2.23272070e-02, 3.07692075e-03,
       1.62255727e-02, 1.74618214e-02, -3.87215279e-02, -2.43447237e-02,
       -1.47533575e-02, -1.61151253e-02, 4.66712471e-03, -8.80518928e-03,
       -2.50348467e-02, -2.81101372e-03, 7.61678349e-03, -1.42612075e-02,
       -4.90151811e-03, -8.10009521e-03, -2.19885409e-02, 1.86763238e-02,
       5.76174911e-03, -9.04649310e-03, 2.53558885e-02, 2.15765126e-02,
       -2.84354221e-02, -5.41235087e-03, -1.61504708e-02, 9.78026888e-04,
       4.25219052e-02, 1.94174889e-02, 8.82437080e-03, 3.39840502e-02,
       1.21367490e-02, -1.78467613e-02, -1.45549923e-02, -9.56606306e-03,
       1.12550496e-03, 3.43083628e-02, 5.97416610e-03, -6.11193106e-03,
       2.38995384e-02, 1.14404957e-03, -2.38550771e-02, -1.45928320e-02,
       -1.85974557e-02, -1.04124071e-02, 2.77583804e-02, 1.93201331e-03,
       -2.17504129e-02, 1.20646358e-02, 1.97520796e-02, -1.75985694e-02,
       6.45555928e-03, -1.12091210e-02, -6.70671556e-03, 2.53234413e-02,
       -6.87469728e-03, -3.00219487e-02, -9.24114231e-03,
       -4.78099985e-03, -2.71631721e-02, -5.99442143e-03,
       -1.97273679e-02, 7.88536668e-03, 3.33822370e-02, 2.43085194e-02,
       4.11056867e-03, 2.44881008e-02, -2.51986366e-02, -1.85340103e-02,
       -1.96547061e-03, -8.85440130e-03, 1.40518025e-02, 2.90932748e-02,
       2.39919759e-02, 1.54170906e-03, 2.50094794e-02, 1.43309552e-02,
       1.89589541e-02, 2.37342641e-02, -4.77059791e-03, 8.36431328e-03,
       3.65997590e-02, 5.92690054e-03, -2.42768899e-02, 7.33369030e-03,
       -3.21492814e-02, -3.40397209e-02, -1.08583141e-02,
       -2.37659179e-03, 9.86933243e-03, 3.96821722e-02, 9.75572038e-03,
       -1.81953888e-02, 7.12634390e-03, -4.62156348e-03, -1.71715673e-02,
       -1.24827065e-02, -1.42892031e-02, 9.08079371e-03, 2.87208613e-02,
       1.34634161e-02, 4.86383913e-03, -1.39263449e-02, -9.03976243e-03,
       -6.07045740e-03, 2.33361404e-03, -1.68867111e-02, 2.92524435e-02,
       5.60316108e-02, 2.85773147e-02, 5.00342390e-03, 2.73591443e-03,
       1.21442582e-02, 1.04719559e-02, 3.77231417e-03, 3.42046493e-03,
       -7.33867148e-03, 2.76902243e-02, 7.47185200e-03, -6.00569183e-03,
       -2.46193148e-02, -1.48400934e-02, -3.44176702e-02,
       -2.46451106e-02, -2.98890192e-02, -1.45304995e-03, 3.30622159e-02,
       2.01384369e-02, -3.44484369e-03, -3.66801843e-02, -1.40294228e-02,
       -1.13534639e-02, -2.35448009e-03, -2.03106850e-02, 1.77445114e-02,
       2.42990404e-02, 7.91492034e-03, 2.04605497e-02, 1.82183478e-02,
       9.78305843e-03, -1.36483014e-02, -6.86105527e-03, 5.20978449e-03,
       -1.23973358e-02, 8.89261719e-03, -1.73894148e-02, -1.41733699e-02,
       -1.54002663e-02, 4.83250758e-03, -3.49325985e-02, -2.52152085e-02,
       -1.39628286e-02, 1.17328288e-02, 3.02938800e-02, 1.58455670e-02,
       1.08587779e-02, 5.29331155e-03, 3.40507030e-02, 1.81495138e-02,
       1.58535875e-02, 1.56432632e-02, -2.15056352e-03, 2.01680101e-02,
       -1.34441685e-02, -1.28866341e-02, -3.06946896e-02, 7.64706358e-03,
       -1.89965907e-02, -1.58086754e-02, -4.37756861e-03,
       -2.32577007e-02, 1.19765578e-02, 3.55982711e-03, 1.34249777e-02,
       5.33485087e-03, 2.73934714e-02, -9.01505072e-03, -5.91263734e-03,
       -1.53499236e-02, -2.37789080e-02, 7.97384139e-03, 6.05026900e-04,
       2.77286745e-03, -7.99538288e-03, 1.13649955e-02, -9.33229923e-03,
       -9.70490370e-03, -2.01805420e-02, -1.21988393e-02, 2.20236536e-02,
       9.62548982e-03, 1.25667565e-02, 3.36340000e-03, 2.86743250e-02,
       -2.70224083e-02, -5.45403222e-03, -7.54852220e-03,
       -1.24123739e-02, 2.17457302e-02, -2.23547476e-03, 1.11940317e-02,
       -2.53589880e-02, 2.03380771e-02, -1.03406608e-02, 1.07537454e-03,
       -1.19644562e-02, -1.72673464e-02, 1.24045508e-02, -3.90829751e-03,
       1.17227565e-02, 1.67299006e-02, 2.38746814e-02, 2.04168982e-03,
       -3.17360135e-03, -1.32164927e-02, -1.28606604e-02, 7.98505358e-03,
       -1.67285204e-02, -1.46890283e-02, -1.62479188e-02, 4.42041690e-03,
       -1.30456677e-02, -2.38303165e-03, -1.72379278e-02,
       -8.04067473e-04, 3.87526825e-02, 1.58182718e-02, 1.06916707e-02,
       -1.21249035e-02, 9.54328384e-03, 7.09669059e-03, 7.11962022e-03,
       -2.75536790e-03, 1.25788162e-02, 3.48243676e-02, -1.53758544e-02,
       -7.02205347e-03, -2.75807269e-02, -1.54450415e-02,
       -3.18477340e-02, -4.54675732e-03, 2.68867635e-03, -1.17550455e-02,
       4.80445940e-03, -2.64732018e-02, -6.07579201e-03, -6.16743462e-03,
       1.17914798e-02, -7.26326415e-03, 1.17852502e-02, -8.33532889e-04,
       -1.61200035e-02, 1.71117112e-02, -3.24808583e-02, -2.05835085e-02,
       -8.82059429e-03, -1.95173407e-03, -7.95102492e-03, 1.35155022e-02,
       6.47237245e-03, 5.25540614e-04, 3.09139006e-02, -2.22769883e-02,
       -9.18678660e-03, -1.15363495e-02, 1.63248684e-02, -1.70241632e-02,
       1.92327145e-02, 1.99290039e-03, -1.30082229e-02, 2.59107947e-02,
       -1.87280010e-02, -9.66865756e-03, -1.99048612e-02,
       -6.56009477e-04, -7.19117420e-03, 1.22906761e-02, -1.18959453e-02,
       -1.41324811e-02, 1.72138717e-02, -5.07319020e-03, 2.36426736e-03,
       1.55000044e-02, 5.94197540e-03, -9.22057591e-03, 8.30694661e-03,
       5.71356202e-03, -1.75289344e-02, 1.47484951e-02, -1.32502439e-02,
       -4.99172788e-03, 3.72229889e-03, 9.87648871e-03, -1.77255739e-02,
       1.35469972e-03, -3.55620333e-03, -1.69389062e-02, 1.73394382e-02,
       -5.73593797e-03, -2.09748489e-03, 1.07301371e-02, 1.68623440e-02,
       -7.97667075e-03, -1.29881687e-03, -1.91925876e-02,
       -1.58031024e-02, 2.82835471e-03, -2.39136703e-02, -1.62409749e-02,
       -1.04930270e-02, 1.63457450e-02, -1.33206435e-02, 9.27495304e-03,
       -5.67171117e-03, -1.08990232e-02, 1.54741090e-02, -3.13190278e-03,
       1.23219553e-03, 1.17611894e-02, 9.87701863e-03, -1.70581248e-02,
       6.57782005e-03, -1.00291604e-02, -5.84840262e-03, 1.46098649e-02,
       -1.86288897e-02, 7.49913324e-03, 1.43059215e-03, 1.89164113e-02,
       -1.25850858e-02, -4.85135242e-03, -1.59224626e-02,
       -5.20205405e-03, 1.96887869e-02, -9.42495838e-03, -6.29228214e-03,
       1.12973130e-03, 6.77275145e-03, -1.59530081e-02, 7.81239802e-03,
       -1.24947159e-02, -8.23191309e-04, 2.42832880e-02, -9.44518484e-03,
       -2.41207909e-02, -1.57037247e-02, 3.50984803e-04, -3.97944488e-02,
       -1.60248708e-02, -2.01960262e-02, -8.28009797e-04, 1.91161856e-02,
       6.35916274e-03, 1.33425845e-02, 1.51134133e-02, 2.85342112e-02,
       -5.01934672e-03, -1.01685133e-02, -1.02477642e-02,
       -8.43319204e-03, 1.41490325e-02, -1.12477858e-02, -6.22233190e-03,
       -1.00498851e-02, 1.63635910e-02, -1.46456026e-02, -8.05213954e-03,
       -1.04725342e-02, 7.64683634e-03, 1.75746009e-02, 7.30264559e-03,
       -3.25470907e-03, 7.39274267e-03, 1.41015174e-02, -2.52692848e-02,
       -1.99015997e-02, -2.45785043e-02, 2.63451575e-03, 6.94637001e-03,
       4.10600193e-03, -1.55033227e-02, -3.03516537e-02, 9.81066283e-03,
       -5.15003921e-03, -6.71287358e-04, -1.15061607e-02,
       -1.05824403e-03, 3.22097763e-02, 4.26679617e-03, -3.01478454e-03,
       1.17029827e-02, 2.84568332e-02, -1.25584397e-02, -5.14321309e-03,
       1.24384870e-03, 9.49759129e-03, 5.21247536e-02, -1.32109912e-03,
       -2.83797123e-02, -1.90786906e-02, 1.46933794e-02, -2.71014944e-02,
       -3.02475207e-02, -1.05369966e-02, -2.76035722e-03, 2.15811022e-02,
       1.15164481e-02, -1.59710087e-03, 3.30803404e-03, 3.16763259e-02,
       1.44869497e-03, 5.16277796e-04, -5.43712266e-03, -9.08084505e-04,
       1.75373890e-02, -7.68015254e-03, -2.89511029e-02, -2.37328582e-03,
       2.78916545e-02, -1.31973345e-02, -2.51333546e-02, -8.29343963e-03,
       1.34518032e-03, 4.31487188e-02, 4.99432813e-03, -2.10628957e-02,
       -2.53034895e-03, 2.66940966e-02, -4.13000537e-03, -1.82283670e-02,
       -1.06256511e-02, -1.42269777e-02, 4.77948897e-02, -1.25589459e-05,
       -2.34326012e-02, -6.35903142e-03, 1.83117948e-02, 5.65401884e-03,
       -1.63505618e-02, -2.75160633e-02, -3.98101984e-03, 2.44597513e-02,
       1.66553911e-02, -2.35164557e-02, 2.32801661e-02, 3.41156684e-02,
       1.10675413e-02, -2.51745656e-02, -2.06309333e-02, -9.28146008e-04,
       2.84148771e-02, 3.65683157e-03, -2.37582587e-02, 1.58636514e-02,
       2.69604996e-02, 3.31669557e-03, -2.20732130e-02, -1.84733458e-02,
       -3.94571573e-03, 5.42604923e-02, 1.20328302e-02, -2.94550266e-02,
       2.99748569e-03, 2.98007373e-02, 4.84019704e-03, -8.19958933e-03,
       -2.30097361e-02, -9.33653768e-03, 3.75878215e-02, 1.13199814e-03,
       -5.12066707e-02, -1.63230859e-02, 2.59402767e-02, -1.80817042e-02,
       -2.26189531e-02, -4.19377908e-02, -8.88893008e-03, 3.14671770e-02,
       -3.83681781e-03, -2.82190051e-02, 1.96536407e-02, 3.26813646e-02,
       1.00676725e-02, -1.40727439e-03, -1.18019124e-02, -1.09874317e-02,
       1.99055038e-02, -4.65599680e-03, -4.36725467e-02, -1.66244246e-02,
       2.24280674e-02, -4.62366873e-03, -1.55965043e-02, -2.54112259e-02,
       -7.56865274e-03, 2.70923711e-02, -8.14545061e-03, -4.10770923e-02,
       -2.54710973e-03, 2.19574235e-02, 1.05341361e-03, -1.89987235e-02,
       -3.39351334e-02, 2.79097911e-03, 4.47103493e-02, 3.28072626e-03,
       -2.32176613e-02, 8.39661993e-03, 1.26484651e-02, -5.41012315e-03,
       -1.18783792e-03, -3.61681916e-04, 6.60514168e-04, 2.35391296e-02,
       -1.36671364e-02, -4.42922786e-02, -1.10364230e-02, 1.16451420e-02,
       -1.67047493e-02, -1.19870584e-02, -1.25717213e-02, 1.29833929e-02,
       3.37912627e-02, 3.97711340e-03, -1.81140900e-02, -3.26900161e-04,
       1.54450834e-02, -1.38375629e-02, 2.12051510e-03, 6.44251413e-04,
       -9.54367220e-03, 3.10954992e-02, 1.42393112e-02, -1.81151778e-02,
       -3.29514686e-03, -2.60549859e-04, -1.18553629e-02, 9.00707208e-03,
       8.26594769e-04, -1.87540203e-02, 4.05346490e-02, 1.97090488e-02,
       -1.12104481e-02, 6.75303070e-03, 2.47954894e-02, -5.97281940e-03,
       1.36339320e-02, -1.33565953e-02, -1.68064740e-02, 2.20384318e-02,
       -4.41218074e-03, -3.15824524e-02, -5.99482737e-04, 1.08489571e-02,
       -4.88975178e-03, 1.01824570e-02, -8.94323830e-03, -2.65536681e-02,
       2.56571956e-02, 7.74509972e-03, -2.42916252e-02, -8.33502505e-04,
       2.65382435e-02, 1.17354852e-04, 4.41556703e-03, -2.54025236e-02,
       -4.76425048e-03, 5.00923134e-02, 1.86691862e-02, -8.66572279e-03,
       1.21858958e-02, 1.68894306e-02, -5.09167882e-03, 1.14937322e-02,
       -1.17274383e-02, -2.95414450e-03, 4.11770865e-02, -3.34358052e-03,
       -3.21318209e-02, -5.12119569e-03, -1.36475135e-02,
       -8.94179288e-03, -4.79527330e-03, -1.74268764e-02, 4.81597194e-03,
       4.28240001e-02, 9.99084394e-03, -2.07622703e-02, 1.14569599e-02,
       2.58751791e-02, 5.94551256e-03, 2.45552766e-03, -1.33537659e-02,
       1.57440007e-02, 3.49687152e-02, -1.00401184e-02, -4.06767800e-02,
       -4.36987029e-03, -2.05433415e-03, 3.96922842e-04, 1.02734994e-02,
       -5.66473696e-03, -5.92203764e-03, 3.01989242e-02, -3.20411287e-03,
       -2.12323237e-02, 5.01559163e-03, -1.58924256e-02, -6.77052792e-03,
       2.58101174e-03, -1.01758344e-02, 6.01978973e-03, 4.75032181e-02,
       2.22107451e-02, -1.35710957e-02, 1.67172607e-02, -1.44184125e-03,
       -2.10320447e-02, -1.08125247e-02, -1.10579850e-02, 7.28773931e-03,
       3.14265415e-02, -6.33195089e-03, -2.29693297e-02, 1.25439400e-02,
       -6.69904845e-03, -1.73444231e-03, 5.03333984e-03, -2.25670869e-03,
       1.00675877e-02, 4.53183763e-02, 1.10890483e-02, -2.65228171e-02,
       7.79649848e-03, 8.37896951e-04, -1.27943400e-02, -2.94089899e-03,
       -1.88386790e-03, -3.11020040e-03, 3.88762578e-02, 3.45796086e-02,
       1.67520659e-03, 2.29292968e-03, -3.83932074e-03, -2.19686721e-02,
       -8.75020307e-03, -1.34755978e-02, 3.18244623e-04, 3.94993834e-02,
       3.82575132e-02, -9.05680819e-04, -1.71220396e-02, -3.23226268e-04,
       8.08002427e-03, 2.15415359e-02, -1.21008074e-02, -1.86307926e-03,
       4.39620949e-02, 2.27743797e-02, -2.17711609e-02, -2.49419641e-03,
       -3.93849425e-03, -9.96184070e-03, 5.86491369e-04, -3.40380619e-04,
       1.76213514e-02, 5.52976243e-02, 3.57150771e-02, -5.21572726e-03,
       -1.07271345e-02, -4.69376007e-03, 1.90823097e-02, 2.36251354e-02,
       2.15588342e-02, 3.38119385e-03, 1.86456591e-02, 5.81738446e-03,
       7.31241331e-03, -1.25820721e-02, 9.95674077e-03, 6.92313351e-03,
       3.16768810e-02, 1.56346168e-02, 5.83310192e-03, 3.28472480e-02,
       -1.74752844e-03, -9.51852743e-03, -5.17890342e-02,
       -1.02149928e-02, -3.52660269e-02, -1.89759079e-02,
       -9.74495895e-03, 1.58540048e-02, 3.80180925e-02, -5.02107141e-04,
       4.23526065e-03, -1.46325463e-02, 1.78644303e-02, 2.33883713e-03,
       2.44575161e-02, 1.00134909e-02, 1.72210429e-02, 2.70977896e-02,
       -7.41739618e-03, -8.51735193e-03, -5.58937974e-02,
       -8.76545161e-03, -2.04999279e-02, 1.13012679e-02, 4.00857534e-03,
       6.27665664e-04, 3.85182351e-02, 2.62579527e-02, 2.08068918e-02,
       -1.55736236e-02, 1.41131291e-02, -3.44884917e-02, -1.63870901e-02,
       -1.66406985e-02, -2.57941335e-03, 2.44640689e-02, -3.12261004e-03,
       -4.72236937e-03, -3.91389243e-02, 1.75032616e-02, -2.15710364e-02,
       -3.14564630e-03, -1.43321799e-02, 1.39854737e-02, 4.16837335e-02,
       8.23158585e-03, 3.24173528e-03, -3.62041108e-02, -8.42320267e-04,
       -2.11369898e-02, -3.49751255e-03, -8.03636946e-03,
       -4.42176266e-03, 3.24666388e-02, -8.55793012e-04, -1.68011207e-02,
       -3.53415124e-02, 1.00757729e-03, -3.30198966e-02, -3.11479382e-02,
       -2.47693192e-02, 1.76415797e-02, 4.24060673e-02, 2.12085657e-02,
       5.69941709e-03, -1.62051595e-03, 1.59870572e-02, 1.14753602e-05,
       1.36456192e-02, 4.51547746e-03, 1.64512601e-02, 4.33665365e-02,
       1.40150660e-04, -9.28433519e-03, -2.77977102e-02, -1.60349347e-02,
       -2.47624349e-02, -9.13711265e-03, -4.10416164e-03, 2.83050293e-04,
       3.55413258e-02, 3.00487806e-03, -1.18652126e-02, 8.90337024e-03,
       1.69313699e-02, -2.09353236e-03, -1.33862777e-03, -1.15631502e-02,
       -1.11494539e-02, 4.00999747e-02, -4.20359615e-03, -1.87861677e-02,
       -1.75668038e-02, -1.25021208e-02, -1.36657543e-02,
       -1.02971056e-02, -2.94371322e-02, 1.63965095e-02, 4.76407185e-02,
       1.12434514e-02, 2.56966171e-03, -2.99373688e-03, 1.02454470e-02,
       -2.21160203e-02, 1.96966052e-04, 7.83566944e-03, 2.43720855e-03,
       3.81938443e-02, 2.33777147e-03, 4.65968112e-03, -1.46110319e-02,
       -1.15393195e-03, -5.18728327e-03, 7.40951998e-03, -8.66672117e-03,
       -6.49402523e-03, 4.23018858e-02, -5.57984365e-03, -5.11616142e-03,
       -9.36753489e-03, 6.95457496e-03, -5.36603248e-03, -2.03388613e-02,
       -2.64771245e-02, -5.90993231e-03, 2.25118250e-02, -1.60447825e-02,
       -2.35460941e-02, -3.77129465e-02, 9.63743124e-03, -4.37947037e-03,
       -4.75789933e-03, -3.35773267e-02, 1.95626146e-03, 3.34662125e-02,
       4.39184578e-03, 9.03506577e-03, 1.75392181e-02, 1.84835345e-02,
       5.42483106e-03, 5.22751641e-03, -1.06319543e-02, -1.74796057e-03,
       1.93026625e-02, -2.01407466e-02, -2.77412999e-02, 1.39171060e-03,
       1.30857890e-02, -8.71188764e-04, 1.39551535e-02, 3.03277397e-03,
       -2.72035878e-03, 4.09688130e-02, -5.98933967e-03, -1.48925800e-02,
       -1.16081433e-02, 6.33100653e-03, 7.91341811e-03, 5.02654072e-03,
       -2.19453163e-02, -1.69657841e-02, 1.42552247e-02, -2.32702959e-02,
       -4.20128033e-02, -3.41587141e-02, -1.16539318e-02,
       -6.96979091e-03, -4.74611170e-06, -1.96151156e-02,
       -6.01291470e-03, 2.17673816e-02, -1.88622763e-03, -1.13156913e-02,
       1.54562853e-02, 1.09539768e-02, -9.30637307e-03, 1.10666435e-02,
       -8.72985646e-03, -3.32857715e-03, 2.75156349e-02, 4.37886175e-03,
       -1.11765452e-02, 4.19966597e-03, 1.03384592e-02, -3.58051136e-02,
       -1.48993470e-02, -2.34257635e-02, -5.65174501e-03, 1.69732329e-02,
       -7.90060591e-03, -1.64835919e-02, -9.82734095e-03,
       -8.48111697e-03, -1.84359457e-02, 7.46867503e-04, -2.76543084e-03,
       9.29041416e-04, 3.98729146e-02, 4.65078047e-03, -1.28136054e-02,
       -3.12659144e-02, -7.17949169e-03, -2.79966388e-02,
       -6.99717319e-03, -1.40885273e-02, -7.12907827e-03, 1.43391220e-02,
       8.37699417e-03, 4.75932285e-03, 2.03721970e-02, 1.68771669e-02,
       -2.46914066e-02, -2.28359606e-02, -3.89654152e-02,
       -7.05935061e-03, 9.60268266e-03, 7.54409051e-03, -1.16357729e-02,
       -1.13406386e-02, 2.65769195e-02, 3.79106542e-03, -1.03821345e-02,
       -2.59651393e-02, -7.43263494e-03, 3.65655050e-02, 6.92420313e-03,
       -7.94641580e-03, -5.18076587e-03, 1.41172288e-02, -1.23061007e-02,
       -9.19783581e-03, -2.54473053e-02, 6.69198716e-03, 2.55892798e-02,
       8.98606610e-04, -1.39355958e-02, -3.63804698e-02, 1.30497590e-02,
       2.59186095e-03, 9.69077926e-03, -7.70801818e-03, -4.75963717e-03,
       1.29193710e-02, 1.16074709e-02, -2.19508843e-03, 1.01887053e-02,
       1.99348647e-02, -1.82690308e-03, -3.87073401e-03, -8.65921006e-03,
       -6.37845555e-03, 2.15117168e-03, -1.54874260e-02, -3.06783393e-02,
       3.71125480e-03, 1.39094228e-02, -1.57013480e-02, -2.50745844e-02,
       -1.57922227e-02, -1.00107286e-02, 1.20514492e-02, 2.52772495e-03,
       -1.60383563e-02, -2.51278328e-03, 1.27404891e-02, -3.29538947e-04,
       -4.28590865e-04, -6.95810933e-03, -4.92175110e-03, 6.11939654e-03,
       -1.56234382e-02, -2.49535590e-02, -7.36090774e-03, 1.80334970e-02,
       4.19916026e-03, -1.05561139e-02, -1.44322272e-02, -8.56663007e-03,
       2.05133818e-02, 6.47409540e-03, -1.25174159e-02, 3.12338006e-02,
       2.51796059e-02, -4.68486734e-03, -2.13699937e-02, -1.93163641e-02,
       -1.86259244e-02, 1.51972417e-02, -9.69148893e-03, -2.51937117e-02,
       2.77013723e-02, 1.90832913e-02, 4.01601894e-03, -1.52593302e-02,
       -1.97807476e-02, -1.82610229e-02, 2.98828799e-02, 2.29459565e-05,
       -1.15634622e-02, 1.98764261e-02, 2.22446602e-02, 1.75988171e-02,
       6.02675602e-03, -1.91706438e-02, -3.91123481e-02, 6.54553622e-03,
       -1.79088619e-02, -2.68006232e-02, 6.58568740e-03, 2.01416705e-02,
       2.96592973e-02, 5.27896732e-03, -3.69232856e-02, -8.58970918e-03,
       2.23668683e-02, -8.26506224e-03, -2.24440806e-02, 2.26677209e-02,
       2.38460302e-02, 1.46440454e-02, -8.56798515e-03, -1.93470772e-02,
       -1.57047762e-03, 2.18831729e-02, -1.30607011e-02, -4.81312573e-02,
       -7.59205176e-03, 1.43590039e-02, 8.55795853e-03, -1.49271162e-02,
       -2.56496929e-02, -3.01322117e-02, 2.09859223e-03, -1.56863723e-02,
       -2.68307235e-02, 1.97119936e-02, 2.35703792e-02, 2.77979653e-02,
       2.56092241e-03, -4.34454046e-02, -1.81931499e-02, 2.19519460e-03,
       -1.85864069e-03, -2.08560303e-02, 1.57610849e-02, 2.66757272e-02,
       2.34822705e-02, -1.73827342e-03, -3.10519189e-02, -8.30980390e-03,
       2.08771955e-02, -6.83976058e-03, -3.69279869e-02, -9.01530590e-03,
       2.60574918e-04, -7.26230163e-03, -6.06424408e-03, -1.71514973e-02,
       -2.41338578e-03, 2.29978394e-02, -6.36730762e-03, -2.15473715e-02,
       1.40426084e-02, 1.81332789e-02, -8.26701429e-03, 4.69835795e-04,
       -1.47008977e-03, -1.88035872e-02, 1.48440907e-02, -5.98497689e-04,
       -2.94529554e-02, 1.91050489e-02, 1.34554170e-02, 1.34862885e-02,
       9.88665875e-03, -1.80071406e-02, -1.68044902e-02, 2.95329764e-02,
       8.50171503e-03, 5.73990168e-04, 2.40279250e-02, 3.62509899e-02,
       2.06203163e-02, 1.46867214e-02, -3.64838424e-03, -2.41233688e-02,
       1.93160232e-02, -1.08289989e-02, -1.85902361e-02, 8.95549916e-03,
       1.73540041e-02, -1.85004286e-02, -6.97204191e-03, -1.13005666e-02,
       -1.45024545e-02, 1.64421331e-02, 3.01236077e-03, -7.16231996e-03,
       1.11904098e-02, 1.88114531e-02, -1.08390236e-02, -1.55421803e-04,
       -1.19593581e-02, -2.93408353e-02, 2.81718075e-02, -1.70100387e-03,
       -3.05718440e-03, 1.18807266e-02, 1.86840482e-02, 1.86486600e-03,
       -4.69225505e-03, -1.33761326e-02, -1.20730735e-02, 1.18730422e-02,
       -8.80063418e-03, -1.89898964e-02, 7.34789530e-04, 1.91695616e-02,
       1.23117883e-02, 6.95415866e-03, -1.49657382e-02, -2.11280361e-02,
       1.65550821e-02, -2.73781060e-03, -1.88903622e-02, 7.66793033e-03,
       1.96310915e-02, -7.76478974e-03, -6.24675537e-03, -2.21282821e-02,
       -1.01131266e-02, 2.17861868e-02, -1.66773684e-02, -3.99676114e-02,
       3.84438754e-04, 2.16608439e-02, -2.29370734e-03, 1.42175714e-02,
       -2.33926531e-02, -1.74695756e-02, 1.18831135e-02, -1.15821194e-02,
       -1.34465192e-02, 1.04405526e-02, 2.85693072e-02, 1.08552119e-02,
       3.69568093e-04, -1.70214269e-02, -6.95547462e-03, 2.03279927e-02,
       -1.96679980e-02, -1.57136712e-02, 1.29833054e-02, 4.18190658e-02,
       2.32093427e-02, 2.87540760e-02, -8.86187050e-03, -2.03176048e-02,
       1.34975025e-02, -1.06572723e-02, -2.34362017e-02, 6.30519632e-03,
       7.74429552e-03, 8.84807596e-05, 7.05160480e-03, -1.74054280e-02,
       -1.56764612e-02, 1.55757768e-02, -7.82514270e-03, -3.47949192e-02,
       1.55697502e-02, 1.11023495e-02, -6.96023135e-03, -9.97864828e-03,
       -2.80690547e-02, 5.28580835e-03, 2.72894800e-02, -6.16072537e-03,
       -1.76530983e-02, 1.40648009e-02, 1.86772440e-02, 1.03708953e-02,
       3.10243480e-02, -9.80696827e-03, 2.96289130e-04, 2.40828656e-02,
       3.99872661e-03, -1.26904510e-02, 1.87497493e-02, 6.11881819e-03,
       1.51745731e-03, 1.44986697e-02, -1.66742895e-02, -1.57806762e-02,
       2.41963491e-02, 4.19298792e-03, -2.80428156e-02, 7.15169497e-03,
       -2.91605783e-03, -4.29967558e-03, -9.22149164e-04,
       -1.92720965e-02, -1.43780783e-02, 3.52223478e-02, 1.14666289e-02,
       -1.21365124e-02, -7.37163564e-03, -6.25832425e-03, 1.99043676e-02,
       1.57641973e-02, -8.13268870e-03, -9.56875272e-03, 2.09600534e-02,
       7.75263552e-03, -2.45593372e-03, 1.34177767e-02, -4.85286862e-03,
       -5.17247152e-03, 8.43892246e-03, -2.73120813e-02, -3.20946798e-02,
       5.30077843e-03, 1.43275457e-02, 1.72377983e-03, 4.85151447e-03,
       -1.65007077e-02, -1.67337581e-04, 1.22039067e-02, -2.52719503e-02,
       2.25172043e-02, 3.16749364e-02, 1.20220250e-02, 4.89924755e-03,
       1.63312610e-02, 3.33835669e-02, -7.55362120e-03, 1.34578664e-02,
       1.32735875e-02, 4.36491240e-03, 1.89071260e-02, -6.66526845e-03,
       -2.76853913e-03, -1.06260097e-02, -6.54264633e-03,
       -2.28268243e-02, -1.40860369e-02, -1.99227855e-02, 1.48552088e-02,
       2.72623561e-02, -1.21238837e-02, -1.16594518e-02, -1.25432881e-02,
       5.71081787e-03, -2.57888529e-02, -4.91026370e-03, -8.28314049e-04,
       6.69146469e-03, 1.24283945e-02, -2.65591294e-02, -2.45457925e-02,
       -2.61832196e-02, -1.23845935e-02, -3.21975723e-02,
       -2.44630296e-02, -1.96968522e-02, 6.83956128e-03, 4.42095064e-02,
       1.21019576e-02, 9.92953684e-03, 9.71812755e-03, 2.62076431e-03,
       -1.29236672e-02, -5.59576089e-03, -1.30403629e-02,
       -9.84227750e-03, 3.82760353e-02, 5.99858724e-03, -1.37951958e-03,
       -2.02102144e-03, -9.51014273e-03, -3.53957042e-02,
       -2.37905961e-02, -2.50340402e-02, 2.00874731e-03, 2.01156083e-02,
       -1.52485780e-02, -1.85344126e-02, 8.55170842e-03, 7.27397762e-03,
       -9.70155746e-03, -3.52396630e-03, -1.74658746e-02,
       -2.52496991e-02, 9.68814921e-03, -1.57604441e-02, -1.48371980e-02,
       -1.08746244e-02, 4.79149306e-03, -2.59871725e-02, -2.43045855e-02,
       -3.33760045e-02, -5.63478423e-03, 5.27287796e-02, 2.42009349e-02,
       1.33068273e-02, 2.61158142e-02, 2.50225030e-02, -8.45525786e-03,
       -5.48444921e-03, -1.03115309e-02, -5.43485815e-03, 5.56120053e-02,
       7.11666234e-03, 2.01943913e-03, -8.22688453e-03, -4.06741956e-03,
       -1.03221927e-02, -1.32450294e-02, -3.17466743e-02,
       -2.14230418e-02, 3.13650370e-02, 1.51142133e-02, -4.35375283e-03,
       1.61662120e-02, 3.24065834e-02, 4.03814437e-03, 6.30802591e-04,
       -3.09973489e-02, -1.25341089e-02, 4.69769686e-02, -1.05149131e-02,
       -3.28399763e-02, -3.54530625e-02, -1.42226126e-02,
       -1.16940737e-02, -1.43118212e-02, -3.91415730e-02, 1.25388624e-02,
       5.40752113e-02, 8.30588676e-03, -2.96312524e-03, 5.10101765e-03,
       1.46896699e-02, 1.49268494e-03, -8.25781189e-03, -1.28496690e-02,
       1.89066865e-02, 4.21292484e-02, -1.21788783e-02, -2.51705516e-02,
       -2.01612152e-02, 1.54608218e-02, -2.03685509e-03, -4.93932795e-03,
       -4.46938258e-03, 2.09673364e-02, 4.91906255e-02, 2.57380004e-03,
       -1.46467872e-02, 1.27095415e-03, -1.36920274e-03, -8.62525776e-04,
       -9.07222368e-03, -1.55817047e-02, 1.26049696e-02, 2.82516517e-02,
       -1.14739379e-02, -3.82057615e-02, -4.25483026e-02,
       -1.22004487e-02, -2.47768462e-02, -2.79845502e-02,
       -1.60676669e-02, 1.66416541e-03, 3.18320282e-02, -3.70323472e-03,
       -1.08131580e-02, -8.60112067e-03, 9.09990445e-03, 1.97952241e-03,
       2.00237567e-03, -8.85798130e-03, -6.09166874e-03, 1.60511639e-02,
       -3.09597086e-02, -2.69397087e-02, 3.02784517e-03, 7.55323004e-03,
       -3.21026961e-03, -2.60838860e-04, -1.53430784e-02, 6.00730116e-03,
       2.75655221e-02, -8.82266648e-03, -2.81054471e-02, -2.28793472e-02,
       9.98994987e-03, -9.13667306e-03, -1.11132618e-02, -1.08690066e-02,
       5.54557797e-03, 4.44250144e-02, -9.24355909e-03, -1.91957597e-02,
       -1.75413408e-03, 6.99574593e-03, 3.14387004e-03, 3.77457403e-03,
       1.27595551e-02, -4.64312220e-03, 1.19724264e-02, -1.81820169e-02,
       -1.40420999e-02, 1.22332461e-02, 3.09992023e-03, -1.87758915e-02,
       -2.56394595e-03, -1.13277389e-02, -7.34384579e-04, 2.98772547e-02,
       -2.09102277e-02, -2.00231206e-02, -5.23962826e-03,
       -3.84800229e-03, -2.42006332e-02, -5.84190059e-03,
       -1.30231138e-02, 2.85099610e-03, 3.05082481e-02, -1.95063222e-02,
       -2.16754358e-02, 1.58150010e-02, 1.61802769e-02, -4.18941723e-03,
       1.48513634e-02, 9.43703670e-03, 1.54017331e-02, 3.24794576e-02,
       -4.43169437e-02, -3.48529965e-02, -8.49225558e-03, 5.07203629e-03,
       -1.72972046e-02, 1.53069850e-02, 7.64159951e-03, -1.27003212e-02,
       3.94130573e-02, 5.88628370e-03, -6.17290847e-03, 9.58532840e-03,
       1.85312126e-02, -7.03459955e-05, 1.11322606e-03, -1.91480890e-02,
       -1.69364326e-02, 4.64638583e-02, 9.98825207e-03, -2.71848682e-03,
       -2.66057369e-03, 3.84616316e-04, -6.47562603e-03, 6.25783252e-03,
       -2.28158906e-02, -2.49714940e-03, 4.64498289e-02, -1.76781148e-03,
       -3.04537248e-02, -8.48476123e-03, 1.17499393e-03, 5.91067597e-03,
       1.97145920e-02, -1.32978931e-02, -1.58516802e-02, 4.18646149e-02,
       -4.80040442e-03, -2.85652988e-02, -1.82183124e-02,
       -1.13287317e-02, -1.22234365e-02, 2.16247272e-02, -6.49926905e-03,
       -2.06454229e-02, 2.66591106e-02, 7.72673171e-03, 1.19202267e-02,
       2.20474880e-02, 2.15814542e-02, -3.16318497e-03, 6.79594418e-03,
       -1.52886314e-02, -1.67582594e-02, 2.56285276e-02, 9.14818724e-04,
       -4.37547313e-03, 9.27565806e-03, 2.01018527e-02, -4.92148288e-03,
       2.53166218e-04, -2.61711478e-02, -2.15060674e-02, 2.22267993e-02,
       -7.67682260e-03, -1.51222906e-04, 2.29404718e-02, 1.77556165e-02,
       4.13918216e-03, 2.60725711e-02, -4.88645956e-03, -1.12204989e-02,
       3.67018841e-02, 7.37198954e-03, -9.52494889e-03, 2.54583871e-03,
       2.20362283e-02, -1.98857952e-03, 2.27784831e-02, -1.33155538e-02,
       -2.51130667e-02, 4.15399671e-02, 1.98055394e-02, 3.83289740e-03,
       1.69652291e-02, 1.56412497e-02, 1.12688681e-02, 6.11994881e-03,
       -2.90675741e-02, -4.59528938e-02, 1.45838205e-02, -8.69129691e-03,
       -2.02815849e-02, -4.49041341e-04, 1.44074298e-02, 2.86329561e-03,
       -4.64843633e-03, -4.95731905e-02, -1.96170211e-02, 3.76914628e-02,
       2.21226048e-02, 2.51682429e-03, 1.66301951e-02, 2.41956655e-02,
       6.00550033e-04, 3.34291765e-03, -2.79069915e-02, -1.31346332e-02,
       1.70352273e-02, -8.63603223e-03, -2.01392993e-02, 4.24598530e-03,
       1.30665284e-02, 1.80052239e-02, 1.68631726e-03, -2.98748408e-02,
       -3.61860022e-02, -9.74062888e-04, -3.07539664e-03,
       -1.98494121e-02, 2.34526582e-02, 1.36261554e-02, -5.81687037e-03,
       -9.35696810e-03, -4.08976935e-02, -2.68581323e-02, 3.08514270e-03,
       -1.21006193e-02, -2.12255958e-02, 2.86957156e-02, 2.83590537e-02,
       9.14923009e-03, -7.12357555e-03, -2.66957935e-02, -1.74359959e-02,
       1.28931431e-02, -1.82927419e-02, -1.59201063e-02, 1.77108627e-02,
       1.89675577e-02, 3.64103424e-03, 1.19693275e-03, -2.16525849e-02,
       -9.18433443e-03, 2.97408085e-02, -3.05886404e-03, 4.46912041e-03,
       3.82010601e-02, 3.41490880e-02, -2.17143190e-03, -1.43850071e-03,
       -8.44491646e-03, -2.66997553e-02, -2.19993200e-03,
       -1.85212381e-02, -3.09072025e-02, -2.37363522e-04, 1.69034824e-02,
       -8.83538392e-04, -1.31908816e-03, -1.79270431e-02,
       -1.72173716e-02, 9.44305677e-03, -2.99759209e-02, -2.19753198e-02,
       1.04617663e-02, 2.30690427e-02, -3.98482429e-03, 4.28124052e-03,
       -7.26084458e-03, -1.07687581e-02, 2.76664812e-02, -1.78850442e-02,
       -1.70131568e-02, 2.07860228e-02, 2.21598856e-02, 1.97789539e-03,
       3.59069533e-03, -1.87473709e-03, 7.95142725e-03, 8.02750885e-03,
       -2.63548177e-02, -2.17827260e-02, 2.75057112e-03, 2.59556510e-02,
       1.13973848e-03, 1.45550361e-02, 1.36472993e-02, -1.61364451e-02,
       1.71527546e-02, -6.54991204e-03, -1.32893817e-03, 1.68490149e-02,
       1.28373485e-02, -1.51266186e-02, -3.24621215e-03, -9.91311762e-03,
       -1.99881345e-02, 1.24761555e-03, -1.97546016e-02, -2.11064927e-02,
       4.92118625e-03, 1.63152814e-02, -3.22094560e-03, -5.79268532e-03,
       -1.20089650e-02, 1.67736746e-02, 2.72488054e-02, -7.44100753e-03,
       -3.86883155e-03, 1.40054552e-02, 1.88756008e-02, 2.74466909e-03,
       7.64594134e-03, 1.13157332e-02, 1.69074647e-02, 2.89178006e-02,
       -1.70585029e-02, -2.35563312e-02, -2.64595691e-02, 1.58937890e-02,
       -8.77878629e-05, 1.20341368e-02, 1.45415049e-02, -1.26972832e-02,
       1.14105968e-02, -8.68438091e-03, -8.24260712e-03, 1.40963765e-02,
       1.51393106e-02, 6.77375263e-03, -1.52442523e-03, 2.84235924e-03,
       -1.03093022e-02, 1.96048245e-02, -5.37338387e-03, -1.62372701e-02,
       1.99508034e-02, 2.51655318e-02, 2.05155145e-02, 2.71212477e-02,
       -6.15324872e-03, 2.40772199e-02, 3.65746990e-02, -2.47195382e-02,
       -2.04053093e-02, -2.76260613e-03, 3.91906686e-03, 5.63227851e-03,
       1.22197461e-03, 2.15392429e-02, -7.63549004e-03, 7.55027588e-03,
       -1.40383951e-02, -3.70111316e-02, 1.34541409e-03, 1.02850224e-03,
       7.03564007e-03, 1.90352183e-02, 2.94488645e-03, -1.84040181e-02,
       2.51732562e-02, -2.23565032e-03, -2.52865572e-02, 7.54241925e-03,
       1.10674780e-02, 1.04950229e-02, 2.43824478e-02, -2.56598666e-02,
       -2.11521834e-02, 2.91121677e-02, 7.43317464e-03, -1.80343539e-02,
       9.74990521e-03, 5.12849959e-03, 5.87136811e-03, 1.65215936e-02,
       -3.07681989e-02, -2.16886345e-02, 6.42948272e-03, -1.26134967e-02,
       -4.39862125e-02, 3.77868861e-03, 1.21129332e-02, 1.75539367e-02,
       1.69818252e-02, -2.86364257e-02, -1.49360681e-02, 2.91349050e-02,
       8.94600619e-03, -1.10487510e-02, 2.18105540e-02, 3.13312784e-02,
       2.35546976e-02, 2.12457702e-02, -2.72774268e-02, -3.38754170e-02,
       2.11823564e-02, 9.88415815e-03, -4.80074808e-03, -1.75706600e-03,
       -1.08768893e-02, 2.30167666e-03, 1.37734609e-02, -2.69489698e-02,
       -5.01013696e-02, 6.78042881e-03, 2.00707894e-02, 3.46094999e-03,
       -2.31313868e-03, -1.61815193e-02, -1.08607812e-02, 6.65772660e-03,
       -3.65286022e-02, -2.19213823e-03, 4.15229015e-02, 2.28713341e-02,
       -9.01381765e-03, -1.32742897e-03, 5.69539750e-03, 1.02948369e-02,
       2.29031872e-02, -3.40118585e-03, -6.85508596e-03, 2.77136937e-02,
       2.35530473e-02, 1.28515502e-02, 1.22122420e-03, -1.40576772e-02,
       -1.10411795e-03, 1.91578753e-02, -1.41699181e-03, 2.81651784e-02,
       3.04062869e-02, -1.68170668e-02, -1.27298608e-02, -1.34463422e-02,
       1.60000473e-02, -6.78321952e-03, 4.60662320e-03, 9.05647967e-03,
       1.77725926e-02, 2.38549598e-02, -2.22821552e-02, -2.41108499e-02,
       -1.39153535e-02, -8.06332566e-03, -9.07931384e-03, 1.02585582e-02,
       1.47833722e-02, 3.62260733e-03, 6.91561168e-03, -3.18947211e-02,
       -1.47018498e-02, -7.23614730e-03, -5.75905247e-03,
       -2.27162242e-02, -2.99201179e-02, -2.29075905e-02,
       -1.21185649e-02, -2.09884671e-03, -2.69832648e-02,
       -1.75413452e-02, 3.03479261e-03, -1.41667668e-02, -2.49063503e-02,
       -2.16261242e-02, -3.21458913e-02, 5.18572005e-03, 3.47349159e-02,
       -1.28985243e-02, -1.21658705e-02, 1.47297559e-03, -1.05958004e-02,
       -1.19889406e-02, 8.04673601e-03, 8.63048341e-03, -5.78502519e-03,
       2.41099186e-02, -1.82270799e-02, -1.73895173e-02, -1.44489305e-02,
       6.52567396e-05, -4.66479314e-03, -1.37954229e-03, -9.74331610e-03,
       -5.32445777e-03, 2.08715685e-02, 3.99305485e-03, -5.89527050e-03,
       2.25714874e-02, -3.13088037e-02, -1.25361336e-02, 1.26799149e-03,
       -1.73535421e-02, -6.81871641e-03, 1.47449514e-02, -2.98264269e-02,
       -4.05198038e-02, -5.75575754e-02, -3.86516489e-02,
       -1.02442754e-02, 1.51868509e-02, -2.71538440e-02, 1.14701102e-02,
       3.35297510e-02, 5.60148479e-03, -1.00923013e-02, 5.59280580e-03,
       9.80356894e-03, 2.22756751e-02, 2.00886615e-02, 6.31726300e-03,
       2.57424898e-02, 4.18405421e-02, -2.27025934e-02, -3.27677093e-02,
       -2.02029441e-02, -1.13803940e-02, -2.08624569e-03, 6.05809782e-03,
       4.42044251e-03, 9.49864835e-03, 2.01605894e-02, -3.08399051e-02,
       -3.25288512e-02, -3.28020416e-02, -2.14583166e-02, 6.30448479e-03,
       2.63413824e-02, -3.76525056e-03, 8.07287171e-03, 6.97667710e-03,
       -5.22880144e-02, -5.89254685e-02, -5.13058156e-02,
       -1.89873502e-02, -1.19138276e-02, 2.36923490e-02, -4.99712816e-03,
       3.09889298e-02, 3.48244049e-02, -9.53978393e-03, -2.05002800e-02,
       1.93169457e-03, -2.09631119e-02, -1.30043523e-02, 2.83033634e-03,
       3.14309378e-03, 2.04803217e-02, 4.21098396e-02, -3.43809719e-03,
       -3.52899991e-02, -2.81552672e-02, -2.35484540e-02,
       -3.64365913e-02, -1.83634590e-02, -6.06650021e-03, 3.31457630e-02,
       3.25390287e-02, -2.37890314e-02, -3.10544726e-02, 9.73204523e-03,
       -3.79218184e-03, -1.62531920e-02, 1.75213981e-02, 1.71023365e-02,
       4.20953371e-02, 4.96774167e-02, -8.53042398e-03, -3.82419154e-02,
       -2.42422502e-02, -2.59720013e-02, -4.62585837e-02,
       -5.40071819e-03, 1.44047551e-02, 1.64860245e-02, 4.50994223e-02,
       8.95875506e-03, -2.46244110e-02, -7.77488342e-03, -8.81125871e-03,
       -3.07397153e-02, -2.25539561e-02, -1.95141640e-02, 1.98434014e-02,
       6.58396259e-02, 9.62212682e-03, -2.50973143e-02, -9.88154672e-03,
       -5.74478926e-03, -6.16792310e-03, -4.83811880e-03, 4.13860427e-03,
       4.05629613e-02, 6.71498254e-02, 1.55976415e-02, -2.36406717e-02,
       -1.10652512e-02, -3.25998403e-02, -3.36024575e-02, 3.43882944e-04,
       1.20964395e-02, 3.95477414e-02, 7.41603076e-02, 9.34330001e-03,
       -4.46176492e-02, -4.02438045e-02, -1.79042313e-02,
       -9.70816519e-03, 4.00552014e-03, 1.33716958e-02, 2.35535437e-03,
       2.26492155e-02, -1.52891092e-02, -2.87110582e-02, -1.48336275e-03,
       1.30740684e-02, -3.48585332e-03, 6.09458075e-04, 1.84020039e-03,
       -7.37412926e-03, 2.64437217e-02, -3.45909894e-02, -4.32467163e-02,
       6.69520581e-03, 1.57815069e-02, -1.35810487e-02, -2.09009595e-04,
       -1.61879193e-02, 1.08657749e-02, 3.29128355e-02, -1.22877359e-02,
       -3.51964645e-02, -3.27683985e-02, 2.65843072e-03, -7.41329649e-03,
       -4.41118656e-03, 5.66035567e-04, 6.15168549e-03, 4.12595943e-02,
       -8.78898241e-03, -3.29700299e-02, -1.17193274e-02, 1.09018963e-02,
       -1.10180471e-02, -2.75338674e-03, -8.43324885e-03,
       -1.03750406e-02, 4.74106148e-02, -2.78119114e-03, -3.11628301e-02,
       -2.94355024e-03, -7.07359985e-04, -1.22211808e-02, 9.02987737e-03,
       -1.96540467e-02, -1.10400012e-02, 3.08069959e-02, 1.56405987e-03,
       -2.69140266e-02, -2.99682934e-02, -1.40828984e-02,
       -1.62584875e-02, 1.34033654e-02, -1.34856058e-02, 5.31725679e-03,
       5.60195707e-02, 4.18328354e-03, -2.04145797e-02, 5.62725915e-03,
       1.86880156e-02, -1.03607876e-02, 4.88800509e-03, -1.72867961e-02,
       -4.02185833e-03, 3.45939808e-02, -8.88272095e-03, -1.11504840e-02,
       -4.58683306e-03, 1.49637572e-02, -1.42580327e-02, 6.62120618e-03,
       -1.56974420e-02, -7.47923134e-03, 3.24027799e-02, 3.60902189e-03,
       -7.74590345e-03, 1.23229427e-02, 9.32010915e-03, -4.29486344e-03,
       1.73206273e-02, -2.23567500e-03, -9.77078732e-03, 3.58965248e-02,
       3.74357309e-03, -1.31051242e-02, 8.75640381e-03, 1.25225903e-02,
       -2.76593864e-03, 1.40328789e-02, -4.86586825e-04, -4.69344901e-03,
       4.36204001e-02, -3.41955968e-03, -1.87305193e-02, 1.34443054e-02,
       2.34822724e-02, -4.20285214e-05, 1.59326624e-02, -9.87153128e-03,
       -7.36634899e-03, 2.80393157e-02, 4.72764624e-03, -2.78279595e-02,
       2.37320527e-03, 8.21843743e-03, 3.57441418e-03, 8.35090503e-03,
       -3.03267734e-03, -2.13663448e-02, 3.46568152e-02, 1.95619501e-02,
       5.96128544e-03, 2.76871976e-02, 2.41328720e-02, -7.96407834e-03,
       -8.71902332e-03, -1.88513231e-02, -1.77994221e-02, 3.95793514e-03,
       -1.69124603e-02, -1.07989577e-03, 9.38558206e-03, -2.73257936e-03,
       6.74725510e-04, -1.36051001e-02, -3.46414596e-02, -1.61731318e-02,
       2.31002327e-02, 3.80745064e-03, -1.24020725e-02, 1.83801837e-02,
       5.15756477e-03, -1.41241942e-02, -4.25111316e-03, -1.87178999e-02,
       -1.68020502e-02, 1.18260738e-02, 5.64901624e-03, 1.07516814e-02,
       1.19285351e-02, -3.08763963e-04, -1.35481171e-02, -1.11119887e-02,
       -3.29875834e-02, -6.81858324e-03, 6.99365139e-03, -1.42979547e-02,
       -3.60720907e-03, 3.28416820e-03, -9.89030232e-04, -1.23272929e-02,
       -1.01283295e-02, -1.85140055e-02, -1.86727429e-03, 3.19753997e-02,
       -4.89321770e-03, 8.90201610e-03, 2.67175697e-02, 1.36048188e-02,
       -1.90108344e-02, -2.03018095e-02, -1.85392946e-02,
       -1.39050605e-02, 2.42863484e-02, 6.26508379e-03, 4.87266900e-03,
       8.99398047e-03, -1.84129849e-02, -2.28199773e-02, -1.74080860e-02,
       -2.97555141e-02, 2.87965871e-03, 3.74608822e-02, 6.13455847e-03,
       3.24442633e-03, 3.05402614e-02, -1.72222722e-02, -2.17917655e-02,
       -1.46955727e-02, -1.64609309e-02, -1.17632672e-02, 2.61577927e-02,
       -1.63725438e-03, 1.16111385e-02, 1.96460597e-02, 3.20585165e-03,
       -1.49178188e-02, -1.97639745e-02, -2.26479564e-02, 1.58478529e-03,
       1.55371139e-02, -1.32604064e-02, -7.13825366e-03, 1.37254288e-02,
       2.41020136e-02, 4.50333999e-03, -2.47565866e-03, -1.14871822e-02,
       -8.48811213e-03, 2.18691379e-02, -6.15128595e-03, 7.92677235e-03,
       1.90046709e-02, -3.28664072e-02, -3.31561416e-02, -2.51670685e-02,
       -3.46633084e-02, -7.57918088e-03, 1.03930542e-02, -6.52027316e-03,
       1.65462531e-02, 1.68780182e-02, 5.43627830e-04, -6.86084386e-03,
       -6.92025106e-03, -2.76835319e-02, 6.39502378e-03, 1.81475095e-02,
       -2.40009773e-04, 2.69131083e-03, 1.60967000e-02, 2.58166436e-02,
       8.76201224e-03, 2.29076555e-04, 2.86465231e-03, 9.40759853e-03,
       1.91019904e-02, -2.23317426e-02, -2.18240935e-02, -1.47820720e-02,
       1.06192548e-02, -3.82102473e-04, -6.05986221e-03, -1.64210773e-03,
       -5.76532492e-03, 9.18289647e-03, 3.64702754e-03, 1.49971619e-02,
       2.50019077e-02, 8.41861684e-03, -7.09158694e-03, -8.99419095e-03,
       -2.10456792e-02, 1.45261025e-03, 2.57317275e-02, -4.74913698e-03,
       -1.61200520e-02, 1.66380331e-02, -7.64074968e-04, -3.08321347e-03,
       -5.21311816e-03, -1.25170723e-02, 1.32179428e-02, 2.94911433e-02,
       -1.40374554e-02, -8.58355034e-03, 2.65299790e-02, 7.53952144e-03,
       -1.79249025e-03, -1.02001298e-02, 3.37579113e-04, -2.61593945e-02,
       1.04073035e-02, -1.72780883e-02, -3.81328017e-02, 1.05855288e-02,
       -1.11407991e-02, 3.22322390e-04, -1.05562899e-03, -1.51352976e-02,
       -1.94298464e-03, 3.32395956e-02, 1.41956089e-02, 2.73174956e-03,
       5.18839471e-02, 5.52554103e-03, -8.70684348e-03, -9.79625247e-03,
       -1.79165080e-02, -2.33707577e-02, 2.01530494e-02, -3.17945704e-03,
       -2.92231925e-02, 3.88880074e-02, -6.68835314e-03, -1.40102841e-02,
       -7.88016059e-03, -2.58972421e-02, -2.42695287e-02, 8.69255140e-03,
       -9.70216095e-03, -3.56563143e-02, 4.62461403e-03, -6.21859496e-03,
       -1.27282387e-04, -1.01199094e-02, -3.05291470e-02,
       -1.75385573e-03, 2.10184604e-02, 1.15196453e-02, 5.61287906e-03,
       3.99207287e-02, 3.51554640e-02, 1.33198285e-02, 6.49978081e-03,
       -2.17801724e-02, -2.43474431e-02, 1.60158202e-02, -1.21615790e-02,
       -2.44194232e-02, 1.54164368e-02, -1.85925085e-02, -2.93334890e-02,
       -1.37454784e-02, -2.47514844e-02, -2.31665093e-02, 1.64356586e-02,
       2.11690981e-02, 2.50957608e-02, 4.38102745e-02, 1.42094176e-02,
       3.60209704e-03, 7.12653389e-03, -2.03417893e-02, -1.46701634e-02,
       3.02468427e-02, 2.75085755e-02, 1.24197276e-02, 2.64445767e-02,
       1.31623195e-02, 7.99282733e-03, 1.03504583e-02, -1.28480541e-02,
       -1.85379535e-02, 2.37482525e-02, 1.30706998e-02, 3.81272240e-03,
       9.04051866e-03, -2.09213328e-02, 1.71452994e-03, 5.00596920e-03,
       -1.57049540e-02, -3.06343529e-02, 1.38907526e-02, 2.17650831e-02,
       2.75827330e-02, 3.70760933e-02, 3.27334297e-03, -2.11591658e-04,
       1.22034445e-03, -4.18030508e-02, -4.76644561e-02, 5.43825002e-03,
       4.89159254e-03, 1.06549952e-02, 1.83994398e-02, -2.66785212e-02,
       -8.51877127e-03, -1.18269864e-02, -5.72800040e-02, 3.63496900e-01 ]
